65,32
-0.00840469989521872
0.008415583241001395
0.012965235086023742
0.010555308431212133
-0.0026890322322917666
-3.898992408208557e-06
0.003284633765375626
0.00034954498632391184
0.006284298096130054
-5.0019260979425574e-05
-0.0006551435888747772
0.00030007193147367695
-0.006358162584168839
0.0031632157758594735
0.0009548624373897939
-0.0067061748267513545
-0.0007650583794968649
-0.0032570141670168026
0.005258588436950756
-0.00845923001094743
-0.004078022481466234
-0.0047123926207560335
0.00046323669305953387
0.004117351794014724
0.004150813155736407
0.009797899012093903
0.004531657193200247
0.00012695481914332829
-0.006456561455550556
7.361443810670352e-05
0.0051077868981959556
-0.007358100813415867
-0.025555452593596005
0.05968024334898798
0.06021786211621498
0.028055832957297046
0.007347843869470671
0.003012117803738559
0.006946561396874034
-0.014444586876720358
0.015558526612797082
0.0495719217963852
-0.022666126137977624
-0.01581435291595902
0.014743928095678612
-0.003228149478763946
-0.04318874798367819
-0.004092084822375388
-0.002060504172991143
-0.031194579384650447
-0.03967814134385903
-0.02939799915800657
0.010721300740650972
-0.04792620338466002
-0.07947153313348614
-0.003614885907994898
0.012024341765670741
0.02472648052300808
0.01231827779651888
0.030873386811642936
-0.02555992367778151
-0.0489728669610556
-0.00017177655231207133
-0.010436910263602078
0.0029095615285922444
-0.004778505994416518
-0.005105247958221581
-0.00256103183844873
0.00021249613516651652
0.00016026460695706506
-0.0007569095775392077
0.0022734431644566904
-0.0011478093179016027
-0.004000836694014878
0.0009669481258075055
0.001748507860773649
-0.0019770194910719427
0.0015268260691033368
0.0039078711860339455
0.003729801771541584
4.3804895478743934e-05
0.0032780456859973356
0.0033909249963919473
0.0028123986696895913
-0.0004022903357836786
0.003627316272206377
0.007886325298308457
-0.00012795207747686596
-0.003418528597995866
-0.00037153454739898104
-8.718234342312813e-05
-0.0025068777777547636
0.0027588002646429816
0.004521058145602387
-0.00030224687337980895
0.0009257742922883882
0.003272809918074896
-0.005357383808110173
-0.0065996264158453685
-0.00340006563505009
2.8250560701232984e-05
2.9746530978004427e-05
-0.0008836908987080713
0.0034676218279414404
-0.0013131833563954636
-0.0046777425407525846
0.0009808539012681567
0.002591539070288698
-0.0014696147456522233
0.002017747324857782
0.004976861841506564
0.004677803552022792
0.00046982169961701405
0.0042967963604006575
0.004165724511119593
0.0035437516007078814
-0.0005967444171979915
0.003942719480143016
0.009257690845785753
-0.00017769981012392136
-0.0036800748252547918
-0.00028917163417948834
0.00018016134743572884
-0.002847192225285277
0.003261033181006263
0.005718654328862879
-0.0005384116918570293
0.0011483105803322953
0.004206699554037894
-0.006959672297142738
-0.007534946423301134
-0.003509704624596786
-0.0001050709953247999
-0.0004624198353477489
-0.002064057487727805
0.0019029253696463799
-0.0028365058169197194
-0.0045239944799756225
0.001322676460891633
0.002235391139933302
-0.0007997662760086573
0.0016281544751615435
0.004114618027964237
0.0041027143501757195
0.0006487019620922214
0.004099568537248545
0.0036143095346594873
0.0036445468392062876
3.9115102102213505e-05
0.005310382002656282
0.009645456701890908
-0.0006470328029341464
-0.004893298845887169
-0.0015406944491346169
-0.0009577847859851834
-0.0030459012948208285
0.004114555113320482
0.0056755227312471224
-0.0003414327363489834
0.0009760264303468439
0.0022927719214339945
-0.004714873745167894
-0.0016264387809997798
-0.0011367295593768716
-6.0313418657626047e-05
0.00037495536953784775
-0.000137326190870003
0.0012485487691012455
-0.0011360961858267028
-0.006064184877193394
0.0015644554154059295
0.00074096566851352
-0.002358440045192407
1.7611874929851738e-05
0.001952735573130651
0.005004980794287307
-0.001554479162750079
0.0039759900818510645
0.0026383196632340264
0.005798982363689067
2.342926708489463e-06
0.005261605624692829
0.008466618108068338
0.0013951501820658751
-0.005274571418077738
-0.0006853436742312733
-0.0014774740047443944
-0.004222680083198882
0.00502310917720871
0.0051181258879022945
-0.0011322526417703528
0.0011782261770494037
0.0023226812210535874
0.0006101192073416533
0.003097234367835171
-0.00018566984714625417
-0.0006910064678162215
-0.0010121007620786124
-0.0024816787686232017
-0.0008893935621401595
-0.003509055011601216
0.0010870108159090452
-0.0012844927336662217
0.000957093241212745
0.00487074045815871
0.0016368992108875434
-0.0008023906377613596
0.002811268033411964
0.0013304842062411477
-0.001398886546883551
-0.003962553076461832
0.0009209545557180011
0.00038946525545662794
0.0017174753782640286
-0.0017754740539760948
0.001131822324766642
-0.0066463182256626735
-0.008746194909528661
-0.0036750269948771174
-0.0019590640875424177
0.002552087847977784
0.003396684633521072
-0.0019482462032700003
-0.0022178113817405065
0.0025571261728681714
-0.004369126897726589
-0.0050362163962375615
-0.002489753869524478
0.00014609196245495893
0.00027818157582894037
-0.0005998849579137962
0.002400999892974546
-0.0014014334622528017
-0.0037144717469157155
0.001004055807031235
0.001546260937130811
-0.0013331152429467631
0.0010481098554788238
0.0037974490385312594
0.0038525694557574553
0.00014909513223168957
0.003220059466659316
0.0032591150615955077
0.0025560979659225358
-0.00035049112344539966
0.0034686548577297065
0.007160131852687593
-0.0006186608971184269
-0.0030839930619030054
-0.0009446940331233785
5.786247617458817e-06
-0.0024863505439567373
0.00275565181244566
0.004111755521943898
-0.00030649067400085624
0.001055638836867276
0.0045785020132328175
-0.006805057228064039
-0.008169762037540787
-0.004613138138671139
-0.0003639982027887339
0.00020047109297752683
-0.0017542127070149748
0.003486650593670634
-0.002632612139649845
-0.005122464871071431
0.0012172260811823034
0.0027209259133541444
-0.003287986464565031
0.0018817452923124303
0.0050421188029080525
0.00560847483640343
0.0010263642832881257
0.005065191083663226
0.004751241643362498
0.004701201089237076
0.00011959930076981444
0.005413420779807601
0.011271103382039361
-3.014933776355159e-05
-0.004527868943858187
-0.0019321972258713965
-0.0003259875612054148
-0.0035656926172734573
0.004283638948120342
0.006308101726444705
-0.000663536013907264
0.0010383575743368736
0.002903900129312801
-0.004493356089365698
-0.00560701313759735
-0.002989527201095307
0.00039056375418273197
0.0003731492622918161
-0.0005603609307553405
0.004017362674442979
-0.0012568704978408295
-0.004229038784632947
0.0008543063451937391
0.002420111748169881
-0.003033120545288339
0.0018751858271731986
0.005053860692369743
0.0045658647755132805
0.00030982912886054416
0.003423351771237132
0.0039281512451032514
0.0025758390633355854
-0.0006626338007031752
0.0030119641600276073
0.00943763298542518
0.0003457715498277811
-0.003042123862630131
-0.0001815611874860671
0.0008066299519822694
-0.0017712102522737551
0.0024573255422123503
0.005078882488106612
-0.0002886287232715596
0.0012283816334823722
0.001997613140622849
-0.0037265152000866006
-0.003935423800487386
0.0005061028924361629
-0.003246911346402144
-0.0006307073159078523
-0.0006131439449721983
-0.00016860090898884625
-0.00043948588023973064
-0.0032476214783710433
0.0015013202568094498
0.0023706635252554943
-0.0008927545758607461
0.0017008594830659428
0.0032196306109055373
0.002030766234916107
0.001037249266370053
0.0027163238269107513
0.0027034544538081925
0.002342502404999263
-0.0021358385551129727
0.004074582157790898
0.006242498558441903
0.0015537564022690491
-0.003980090920177091
0.0023069974016572308
-0.0005509854133900342
-0.001569036489542595
0.002289756180179565
0.004905950794496304
0.0029941315322197445
-0.0004930692146530612
0.0027223115013156195
-0.004173313681683242
-0.004968102488007347
-0.0023009409969245898
0.00011975116185506836
0.00013870494696763456
-0.0008472678743993126
0.0018358314951436702
-0.0014330949466420059
-0.003463682172110388
0.0008233560768129202
0.0016747226842547208
-0.0009152579016077692
0.0013157997526646772
0.003293532128423069
0.0033251286343989454
0.000677188767669268
0.003392377878292321
0.002799384917560195
0.0031031466434740204
-0.00014460919574564113
0.0036004502779007565
0.00680286272019511
-0.0004193252650119978
-0.0030641467638745394
-0.0006339731017041799
4.486483434093182e-05
-0.002382273748496483
0.0030797369081496974
0.003928954935716779
-0.0002291234590563842
0.0008066032816256294
0.0036446786542313663
-0.0056454845620581146
-0.005994857132352003
-0.003478810608630428
0.0027710999404249267
-0.00037935947740179096
-0.0015638820990361573
0.0023580722797298392
-0.00048476790470791914
-0.005105089012978402
-0.0002732933649930871
0.0033268053711363516
-0.001995037295651046
0.0035061861649538627
0.003967172825731776
0.0030862680102012306
-0.00043969067732461725
0.005111713546726949
0.0023573996346612693
0.004904108270895437
0.0004971299179708304
0.004653074076894537
0.00979890249463737
0.00043817663429889794
-0.00466902718238086
0.0017920371290934959
-0.0012416974121417237
-0.0018271658766794191
0.002471686971841774
0.003644569244816425
-0.0012338571829027586
0.002885439118470447
0.00011740183909365422
-0.004866213939889008
-0.0031632491928699318
-0.0015670412840272509
-0.004976550703783069
-0.002563131636127001
-0.003197910476278927
-0.0016346031472649729
-0.0006094101364399035
0.0008613739035664173
0.0007935311908715063
0.002207277613133693
0.00013227296665065802
0.0015033274150621047
-0.0012813091003251442
-9.886289834149154e-05
0.0038768281444223535
-7.944133645492698e-05
0.0025583627162772925
0.002826636513554372
-0.000322120934547811
0.0031218650873048883
0.007214673519615743
0.0019372957959368955
-0.005966601272199269
0.0002602861968755223
-0.0017617871421893745
-0.0018951462091385172
0.007780527814752451
-0.0007750883664948517
0.0036502802627735816
-0.004219295666157036
0.0008516369094897078
-0.004132410447618421
-0.0030119725966884915
-0.0015056336302729275
-0.0008455561314491131
-0.00082087600260243
-0.0009903874918171165
0.0003389559218673367
-0.0009631599415591726
-0.004021418368588744
0.0020163919917528025
0.0010966896967949252
0.0010521591668822055
0.0008488317422014392
0.0026996686693170134
0.004814349097450739
0.0008410710659806084
0.004360993640691513
0.003994357848656545
0.0025559307850060043
-0.0025460733607482176
0.005863952908718822
0.006279501076501647
-0.001109979536068484
-0.0038222545031332744
0.00020573905302244654
0.00043763160077664237
-0.003951320150313146
0.0025917820935133008
0.0034240523496267576
0.001856223485740213
-2.914991160445676e-06
0.0019965901901831647
-0.002708447375694854
-0.003586294449738444
-0.00035772298014116223
-0.001245033554086391
-0.001769448136413616
-0.003265231002265195
0.0003719949704537302
0.0013699207357782625
-8.915466719175817e-05
0.0010629354915485188
0.003757795524403372
0.001322534801647278
0.004404927515553518
0.0028205247609565365
-0.00029655715878791085
0.0004455073462135799
-0.0003583914081833691
0.00041025926245721726
0.0013737572443877945
-0.0005817117172032957
-0.00020542236635032188
0.005881794355700504
0.0020465182290847353
-0.0034629646298906937
0.0021794050245824083
0.002695246200252459
0.0009992649829446878
0.001401602299958171
0.0016751477795009838
0.002373611345657059
-0.0011685250036033283
0.0013492523723783983
-0.0037775182968442546
-0.0038170841480742027
-0.0015320034818948054
0.0006401089399282053
-0.0007722785317076256
-0.002146374911551071
0.004712729350971729
-0.0014535151074174667
-0.001989872728467339
0.0006822047191460964
0.0035599506430936496
0.0007941987239553903
0.001644131656896149
0.0056492308694335676
0.0034470940353880045
-0.00019673063759187133
0.004254917673976542
0.00319989065830146
0.0024871602617560803
0.0014246766579489158
0.003135085272104385
0.00884772622211845
-0.0015274858810342723
-0.0021973698845207342
0.00023992550936825715
0.001499168389782428
4.6771278982947987e-05
0.00045090599230518613
0.004964681419167131
-0.001409053832112325
0.001108396172396036
0.002656357675226046
-0.0043273281674019864
-0.004899290309731171
-0.0009310286369099041
-0.002703309283636777
0.002487381985777949
-0.001188817585478285
0.002667067297694617
-0.0016195164101600395
-0.004240307044341927
0.0028227573058255467
0.002397307714887802
-0.003521925609916912
0.000694427051819648
0.00665353741073841
0.006312715393453767
0.0017876487529984756
0.004123243389870396
0.004385676106332879
0.0020398258826843335
0.0018049432584534605
0.006210003052078697
0.011280626612595103
-0.0031326640953673363
-0.004576725815722143
-0.001414357757223898
0.0008825499917647507
-0.0041906484389854035
0.0037463372133704066
0.003943794973918001
0.0037588068923869716
-0.0002509910184940822
0.0031923378551844783
-0.00511573580414843
-0.005323802564805384
-0.00303343065639111
0.0006256385426989538
0.0004985967041275574
-0.00017012278800798887
0.0035470040197776655
-0.0010286592790612714
-0.004932473788496146
0.0007795586892779193
0.0022250916499364304
-0.002147887293216831
0.0020125183282019006
0.0046342850424332775
0.0049878283293577725
0.00012060558055342122
0.004142004450068738
0.003990320186599302
0.0038972894462544257
-0.0006784588754355437
0.004022160556225749
0.009564096814726458
0.00048251791792804403
-0.0037141439861392957
0.0003125715331606721
0.00037568101366016013
-0.0029549175738813292
0.0034540817821424583
0.005779216844628651
-0.000627802812302515
0.001310289549352983
0.004154751792024868
-0.006129029709715776
-0.007116208282888667
-0.0037947765468654324
1.652318146478253e-05
0.00011914767426732913
-0.001558616560524086
0.0024625925348486467
-0.0023633023266359673
-0.004563009595893699
0.0009933299680013302
0.00220507212726228
-0.001683609699389867
0.0015764791746342211
0.004436597735922551
0.00529386544520986
0.0006615833672210508
0.004571010217649433
0.0039367404695861506
0.00407488428305027
5.646634052125002e-05
0.004720847549433121
0.009284990116810842
-0.0006956983082730182
-0.004750976840675231
-0.0013192874261965123
-0.0003737728958176079
-0.003534375087636019
0.004397067407607511
0.005696502633615615
-0.0004254740232188953
0.0012777574088219394
0.0027184382222857372
-0.004279536465984332
-0.0047774223240876915
-0.002401288418129379
4.5138242805031134e-05
-0.00011723824554383714
-0.0006929865550742622
0.002038704708186381
-0.001204520009220398
-0.003372027536345716
0.0007774596976251091
0.0017668958544844425
-0.000979227361931888
0.0015846284627098204
0.003364453098213643
0.0034084981786202443
0.00029120621925632497
0.0029824175957321075
0.0029882910706989967
0.0026368588073096204
-0.00028092662831789096
0.003195932097015594
0.006710787883700482
-0.00023793832956216647
-0.0031082479908188226
-0.0007772681812331223
-7.509041031825934e-05
-0.0022878091773099554
0.0026463674219475712
0.004227929572375939
-0.00040286148738893543
0.0006476295979281095
-4.8508021332900185e-05
-0.002316898546054109
-0.004999579168350703
-0.0018758435342557441
-0.0009085712191935472
-0.0009026745200408693
-0.0022353450049042768
0.00396676795501464
-0.007428931098809247
8.152213172572544e-05
-0.0002645310107440264
-0.0006762776335340536
-0.003968655725018738
-0.0025424004365030817
0.0037470828869319833
-0.00039907145192716087
0.0025124752430474746
-0.0009111521620044143
0.003194775241771275
-0.0015565724717686667
0.0011986022133820648
-0.0014942190428816077
0.006502810331726304
0.0016519910378504578
2.527009868087968e-05
-0.0026210015362601573
0.00215101445149956
0.001869865173131142
0.005941267111358855
0.0005602392618363168
0.002900071229803729
-0.000928027993736867
0.003072941129899873
-0.005104204159167401
-0.0060051934385481915
-0.0027661035818635766
1.3387644150475953e-05
-0.0002994576829412394
-0.0011567754008372745
0.0031589715688284258
-0.0019995598530903208
-0.003985737931266132
0.0011398998619183455
0.0023065799759090836
-0.0018358131115949821
0.001593191665828496
0.00436241141617955
0.003829344671381388
0.0005996109347482394
0.003415034423012398
0.003617890629245249
0.002846754065819189
-0.0002014159850742996
0.0036487960630311733
0.008822500916574903
-0.00014438582220907968
-0.0037653945851877026
-0.0011610418890245612
9.261501961940562e-05
-0.00221034628885098
0.0032156969620429866
0.004952402284621558
-0.00019997728852017173
0.0009008322465260315
0.004262019986219938
-0.004818512473074446
-0.002030227020341206
-0.001861126677123812
0.0013007054767230223
0.0008028858657000993
-7.056679941702768e-05
0.0005265103148587887
-0.002440998328124141
-0.005398974193573184
0.0022717435285715152
0.00022327388293360632
-0.003269085083611759
0.0005227817718994612
0.0028100423458295425
0.0030931423810865943
-0.0011014477149626255
0.0028489353242710596
0.001693145367086828
0.00465578223430605
-0.0003276323616545681
0.0052355699663802924
0.00823194109616105
0.0006021578590094552
-0.005018305236977522
-0.0007384195099418786
-0.001748624653059698
-0.004637612906525773
0.004589929779967647
0.0038147773511916718
-0.0011604077211382839
0.0005840394487791285
0.0013839856949975022
-0.0009239166438346953
-0.0007469769216645229
0.0011783850191512929
-0.0091430452535356
0.0014500165038423352
-0.0015229457057962569
-0.0035562683921940624
-0.0023367578336818636
0.0006648042979658822
0.004027580500937074
-0.0013237765956394807
-0.009067944227220487
-0.00309367984788698
0.0010279556388912787
0.0027100690069121057
0.00417530648225667
-0.004751891766055966
0.0018291454632213338
-0.00216331115195345
0.0003879100575479322
0.0021653453068374642
0.004985552807419183
0.0034394718449932155
0.0037916971158498273
0.0013671151503564228
0.003362083283368568
0.001687491241843741
0.0022137772498518286
-0.003320461122161339
0.006969527501325272
-0.004362979650861183
0.0014916917809281208
0.0016483571784395858
0.0029062610399659093
0.00018697658123902362
0.0028418787214746213
0.00359820116511864
0.0037701594325963406
0.0026660353157971777
-0.0026747657079916978
-0.0010330427249213997
0.0008309928965391374
-0.0005546174881941871
0.003309351346992532
-0.0009173671641753573
0.0003680009344843679
0.0024728964138224386
0.0019006726317976272
0.004652555230600678
0.0009528612728007234
0.007089429957021273
0.0002797897402516081
0.0017597868383810368
0.0012269724957560857
-0.002009638301904868
-0.000180690664772455
0.006195678488393106
0.0029262033438914674
-0.003833375235269228
0.0026340442844370263
0.0019019069283189034
-0.0015774232734317823
0.003010012918058181
0.0018577636670962974
-0.0035934458032429637
-0.003532951924843794
-0.0018144735387719602
-0.0007705478561522871
0.00013491287534546324
0.00012927684668207078
0.0020964733815424714
-0.0015065379726441341
-0.00403132048376362
0.001613159115458071
0.0024948530872169745
-0.002631173247831876
0.0017667601267112797
0.003324890619969301
0.0022127551269643417
0.0033397184517702278
0.0027125683296632935
0.0032584968693282405
0.0024384657968504796
-0.0012551221486315778
0.003763987800715002
0.006085742335542014
0.0010014755750016268
-0.003459196278742821
0.00013961761261545316
-0.0012132179827949751
-0.0030852898550554593
0.006064880260270204
0.0020958734418068197
0.0013199411647273117
-0.00035112208761640343
0.004873342744364472
-0.004408028583671159
-0.0030588026327636295
-0.002857623379928883
-0.004180592057851282
-0.0006116696227824753
-0.0030411362457905934
-0.002895492090651251
-0.0036321106831395263
-0.0002647574082900298
0.0014183149628694248
0.0007571372917182273
-0.0036514116789621337
-0.0004670583930376417
-0.001142142918942189
0.0033328196742513543
0.0033930535182478266
-7.79937553530229e-05
0.002648091250631352
-0.0009761897779658004
0.0016127951441562104
0.004015204657855163
0.006408526977906246
-0.000502117271604804
-0.0015525636307231242
-0.0020521580727585536
0.0010195549764309376
-0.0008034576367291385
0.006295653749886111
0.0005407090373165777
0.0050497344955678074
-0.000546902872024781
0.002716212865180516
-0.004411529670916455
-0.005434788812447345
-0.00265579195289319
2.2464958063586033e-05
7.347940564701715e-05
-0.0010738985297384042
0.003103361033196452
-0.0014603186951933798
-0.0033420968463908816
0.0007254116206009898
0.0020097631033272833
-0.002756708772983311
0.001408630163058568
0.004012996287510866
0.0037163556371040828
0.0005603724353810353
0.0028901648359970092
0.003295068904922975
0.00223099547654917
-7.710648965884978e-05
0.0027692819911171803
0.008269138650115485
0.00015645153125081864
-0.002916307338723094
-0.00043869557959351827
0.0004070133622831602
-0.0016304889732191585
0.0026851859086640213
0.004192220228436096
-2.0396980761252545e-06
0.0007234139413902607
0.003665897142729709
-0.005549288599940219
-0.005762253671475376
-0.002802658757106442
0.0004153945901750055
0.0002765047674723092
-0.0012450791582251078
0.0021709772987566424
-0.0018849676023269999
-0.004381319170942988
0.0008289809969670084
0.0019787235607764304
-0.0009975875809609379
0.0014779956749957004
0.0041072049661944506
0.005047269312119933
0.0002314971584015054
0.0039841275283350845
0.003213243381498802
0.0037086924666446383
-1.3901919584184377e-05
0.00464523786928666
0.009035490079677272
-0.00052886385883551
-0.004914016560953098
-0.00019098155786602508
-0.0002141544222983325
-0.0030807632206372535
0.0040805616042090525
0.005193439464635115
-0.00021839379708283522
0.0013547618232153049
0.0013950503993112406
-0.005529351172435657
-0.006406578126055998
-0.003170510873970753
-0.0010340078540928743
-0.0008581959852697772
-0.0009341455526981577
0.0044830415902956935
-0.0013136919771130097
-0.0008623332355401541
-0.0001872112971120578
-0.00015523005539671314
-0.007434753920150652
-0.0005134640938662032
0.0037120990230379573
0.004430539781368117
0.003067282077799202
0.0009399810607784101
0.007308470775207807
0.0005486896919128967
-0.000872275716790101
0.0008784863060528924
0.01094172180664459
0.0015230900453514008
0.0005784291693790227
-0.000521332969289681
0.001837603353625899
-0.0008830571222038803
0.006471217995075517
0.0029419091438586758
0.00216546505645164
0.00012507860214892164
-0.003449467000340722
0.004342529314772614
0.0036698357592584306
0.000519886880475528
-0.004817698168487489
-0.0007749138268056533
0.004182215273872211
-0.0005766693352718265
0.0020052270883243995
0.00026944945924991707
-0.0008267736594866599
-0.0005231548605822844
-0.00485110429977312
0.0002692096321244634
-4.929223124049392e-05
-3.245797886773426e-05
0.0008414845542390535
-0.005824480584449692
5.6673216348949326e-05
-0.0036377356617718426
-0.00523637337837389
-0.004548497782929698
-0.001023247589918661
0.0064160655136137655
0.002159694174079451
0.006459776567357458
0.0011039649223204427
0.004223412387241555
-0.0028424681686820895
-0.001420221961725897
0.004989841779341437
-0.0015199334713383614
0.0039876876932486245
-0.006106991274693702
-0.0069476805561910415
-0.0033138508984006418
9.871966326396949e-05
-0.00024348909319933418
-0.0014235319950166125
0.0036262751595493733
-0.0019672962342236634
-0.004869465721974714
0.0008996554929233344
0.0032927670799962282
-0.002614087292214825
0.002366923694619816
0.005011943280285837
0.004580754779837726
0.000577460003229285
0.004248280623173814
0.003847573644620768
0.004147592414244425
-0.0002671495151891768
0.004611900712027826
0.011143473374781302
0.0007329073939656642
-0.004902659573325959
-0.0005032350923698538
-1.6557892103830587e-05
-0.0026487382892156795
0.0039811745710104166
0.006255336153053984
-0.000489783525214204
0.0010003993966815714
-0.0007663182865859977
-0.003583400889514047
-0.005009989535371361
-0.0003115558472327867
-0.0030229892076160023
-0.003966197981262071
-0.0029858482674399198
-0.0006824315214457675
-0.0010671766668436937
-0.0025417218850818392
0.0025406943643172288
0.0011061068291267908
-0.0026459718776753135
-0.00038464043004361975
0.0011359779943406613
0.0009187400033310351
0.0023491112987803248
0.0018023490343389613
0.0028987177622218072
-0.0003743011833213559
-0.003712396488522271
0.0014015312725615939
0.004411397722988689
0.0012289634774748936
-0.001824448928254569
0.0010512727910805867
-0.0003609881392935905
0.0013973125016137143
0.0017925512106521223
0.0009731710990143228
0.0029915608314822185
-0.0016539954920260457
0.003422337617605735
-0.005530159845944348
-0.00620239057867023
-0.0025162836437616653
0.0003191023003305416
0.00020996064961531377
-0.0011449518092806067
0.0024575503574781254
-0.0014366831796239468
-0.004582505141066116
0.0008776344456602744
0.0022827013808997872
-0.00034920233199675865
0.0017977812551176135
0.00475769348991995
0.005161414269818011
0.0007651838828644374
0.004436379455285611
0.0033492557401624806
0.003662787070054086
-0.0003695632951519263
0.004729993921822998
0.009260072278925217
-0.0009683745235692408
-0.004637220635988581
0.00028632929058497366
0.00025952600731083184
-0.002952748094250319
0.0038154637728024152
0.005514451185934091
-3.887993415858731e-05
0.0014501172291420264
0.0026295358751458366
-0.003941027108398211
-0.004874389170373596
-0.002539004719853399
-0.002020260982245777
-0.0003070999889264446
-0.0006209068669969266
-9.802943599237346e-05
-0.0020416720808566586
-0.0030969866035526175
0.0019935900362313807
0.0021295612166633564
-2.9247496628781776e-06
0.0006780695265358154
0.00393247268535559
0.003412475138614014
0.0012361370080227838
0.003460119787358256
0.0023371818784200756
0.00220932284486854
-7.651858156003619e-05
0.005017760997418407
0.006858243419856545
-0.0014923829397995346
-0.003951302182115315
-0.00023167045133881293
-0.000839231094819928
-0.0035777104913186416
0.0034306071719805145
0.004118234346372663
0.0013121379204678214
0.0010088948267311917
0.004526253150244015
-0.008204101955280168
-0.00852540385993655
-0.003270754922018457
-0.0007986227235911412
-0.0007543445356483154
-0.0014747864101091232
0.0030690103055906735
-0.0027770052098202067
-0.0062797220632266355
0.0017329720570485824
0.0031682452129385367
-0.0011759281436694957
0.002262554831801033
0.005942136527913409
0.005668400315634821
0.0005817706753034733
0.004691873246151911
0.005437873209489911
0.004138889712053005
-0.000716597799381487
0.006463874277990217
0.012704486251569547
-6.409782594778295e-05
-0.005794606757431292
-0.0006319999294041386
-0.0006560836088923013
-0.003699111791699462
0.004697609143346277
0.007886246904079847
-3.1868942443652023e-06
0.0003496211520254937
0.002953106237712955
-0.004689308361065881
-0.005851807985606724
-0.0027072407306548024
-3.400976710003573e-05
-0.000290967533672207
-0.0011925239869365282
0.00300060255139942
-0.0018514161799969653
-0.0035528482450204115
0.0009953682716923127
0.0024692351864051077
-0.001163684213300904
0.0017356150004230924
0.004119502859173925
0.0035959843290117423
0.0009890261791285168
0.003639105982354351
0.0033812099123542707
0.0030832704772101403
-0.0002036667431711508
0.00361221056475925
0.008272253990138019
-0.0003334983885304139
-0.003466841794412436
-0.001271478269265957
0.00023871426770224547
-0.0021633771147930333
0.0031333189657312705
0.004562924934579136
-0.0002682129823618302
0.000808043473342239
0.00306765819621544
-0.004716828436773574
-0.004958090740999505
-0.002855792617564602
0.0004314455363449639
0.00011011340055511907
-0.0006899792523584052
0.002430829014749973
-0.0009557988301364185
-0.004147941471546731
0.0006810389965918848
0.0020566970623790695
-0.001976017186675003
0.001896243309189927
0.0036777827343509833
0.0038193612475435758
0.00018300752974813826
0.0036967463246253413
0.003179180507857941
0.0034808821734115107
-0.0005401886716342566
0.0036642406569870486
0.008187800422454164
0.00039041499188695203
-0.003380333329625429
-2.1781798706937618e-05
-0.00014577168712599957
-0.002506530989212197
0.0028946417870106354
0.004903411284894691
-0.0006007055486397812
0.0012033078303593412
-0.007803490601806519
0.015413780994263628
0.020724683965246238
0.01734386745508788
-0.001595668668427405
0.0023901576105548983
0.007802967619319806
-0.015045005795957949
0.0017827126349532888
0.007007137440961143
-0.00016847857452545283
-0.0050385835612188215
0.003452997919278639
-0.009110286373564966
-0.007955077888828155
-0.021413014897798458
-0.0063892495549411855
-0.014459184766764827
-0.007713645565617847
-0.01228338952676111
0.0008632193400267524
-0.015206425688648658
-0.03244367530520931
-0.0010054411419779814
0.00817863243013886
0.00748061471992255
-0.0012159576251653855
0.004235700340462219
-0.010681314305729776
-0.013142789006691377
0.0010353226622833666
-0.003333840567461125
0.0009215043655159286
-0.002760085051018944
-0.004985233784814027
0.00010835596124810682
-0.00037159501331359454
0.00029508296268859936
0.00027402747779099615
0.0014691004731710838
-0.0005167548985867026
-0.0034758089589507
-0.0004617646008682793
-0.0007659426132711914
0.003191288417003763
0.0004117241123337345
0.00047021429072726387
0.006020574954213571
0.003984991973823575
0.0042551080346299175
0.002419641622572713
0.005904432189836809
-0.0007492334216469932
0.004886768065818309
0.004699951195228563
-0.0009241022839786025
-0.0013417083871989177
0.0017332558654580238
0.0012364663345629174
-0.0030031694278397783
0.004606305297754787
0.004003085301966366
0.00030706130053314277
-0.0003091858759203023
6.230972704350042e-06
0.003990150989862567
0.0030158143879110287
-0.0009511888144400203
0.0006449079867206301
-8.167036388108788e-05
-0.0005922653544008047
0.002719151829998514
-0.0050219238455179345
0.0030072730718677105
0.002090613103113318
0.0008922004280205044
0.004979984483624288
-0.0019651839372655886
0.0003540619991838826
-0.004427868173812803
0.0017270340391775383
-0.0009776325304582353
-0.0009870830197596626
-0.0017656817492562413
0.0014993972561410432
-0.0016374953762005292
-0.0037388425234686725
-0.004542981729899192
0.0024077641723783847
-0.008696754805889589
4.0185668922200775e-05
0.0017693554316091386
-0.0030581607752406025
-0.001990191796006139
-0.0005865735006509757
0.0008142934735999951
-0.00989108774448038
0.013642470872757361
0.016665228528526872
0.004572575362445767
0.005965210807955934
0.004412296680098754
0.004588414041905317
-0.005842228921366901
0.016202051287453025
-1.868743918152938e-05
-0.008097996160716192
-0.001216012790555621
-0.00931340585809703
-0.0015636651439225957
-0.005775735956400331
0.006855501243858159
-0.008108522536043612
-0.0025036429794637665
-0.011383090781379251
-0.00810850326786045
0.0011136442082576533
-0.015223637294124511
-0.010580765143389516
0.0005949204880729804
0.002725651450827534
0.02369243440115797
0.0020053303372059793
0.006507307444861402
-0.003967325656700211
-0.005949251498315931
-0.0001252653686778701
0.014209393014839599
-0.011058813144753958
0.011336918109812456
0.01659850254207231
0.012498227799312794
-0.002996283807265755
-0.00144909628137446
-0.0008388139383220317
-0.020016782064617027
0.011546099438642092
0.019721996565809637
-0.019351423669093475
-0.010971764770505625
0.012904154877390694
-0.011661036623461754
-0.019964505282801946
-0.011450483624441024
-0.013548230456220042
-0.018571565098294638
-0.013413089820791736
-0.01623194851186275
0.0020406166074009293
-0.01687482048917763
-0.04950079498641824
0.006587117360308463
0.017002074684611932
-0.001734820439285812
-0.009611003012272875
0.01137412760054262
-0.020383650750641517
-0.011794923794996356
-0.002793057694071716
-0.014296968463087728
0.0011878990429827708
-0.004668869851821048
-0.00879265387499213
-0.001150437708982657
-0.0008095382090110318
-0.003700426231702647
-0.0035762967513760665
0.004028240515043075
-0.00365105248867914
-0.003376457567723408
0.002652509828453463
0.0030424190532689016
0.004408410589634728
0.000985075611540175
0.005004126173148204
-0.000504206964485793
0.002708003932496093
0.0034823279888090493
0.0026320693369247033
0.0016960625203126815
-3.9365738239616424e-05
0.002211934246575125
0.005964320573458516
-0.0020565615072308126
-0.0018473178953635659
-0.00190567074819158
0.0016932309548903888
-0.0005274152114634872
0.0038309607653873893
0.003753159687983311
0.0018057193587238593
-0.0003640379635944018
0.003925620931139498
-0.005748885170034143
-0.004295820438747887
-0.0031322403933375423
0.0008078296256673656
0.0005170002772970393
-0.0007036270505963429
-0.00015326406693555772
-0.0018679080766681722
-0.0044798065422428195
0.0014628385653759524
0.0009049291347100658
-0.0007156390004969755
0.001045474736594727
0.0015298446056499547
0.0035629098049328616
-0.0012124012572892076
0.0049498443309864415
0.0014160413758496383
0.004684856953346237
0.001095679537641561
0.0058060937330642205
0.007613061953817739
-0.001175434285815485
-0.004828230178668539
-0.0025317783180652904
-0.0007365822290527449
-0.0036953035494890216
0.003107433141793382
0.00427393273039494
-0.0017692860370496142
0.0018917696318823
-0.006729210169278885
0.013695575929591999
0.009080398129130945
0.007301823480286494
0.006569823907179616
-0.007621270403295008
0.009674297275732621
-0.0032047726147151224
0.010692895722953361
0.01075384465986487
-0.0027022425324932896
-0.004994158849214981
-0.003619638904562813
-0.0026878639000192978
-0.016013261155121382
-0.028876056261897456
-0.008012404303141332
-0.010873374164309519
-0.013227758342373205
-0.009317196937058828
0.0005406692056481944
-0.015674671883352472
-0.02680796052810027
0.004164062916262299
0.023280865715742213
0.0038639136076434773
0.0035484586032105874
0.006842837123206182
-0.010707048494427976
-0.014518252997821756
-0.010007519528577981
0.005440713534028331
0.0032831787367407815
-0.0005742703270789958
0.01015609880503841
-0.0001243929540015245
0.006568718096035174
-0.0009277580344149164
0.00025063790106892304
-0.013661169006839844
0.0043039824673971406
0.0019411303877530821
-0.0028458588519754903
-0.0010036656336644748
0.0029490249028068798
0.0007325491833585104
-0.010320852761506178
-0.011023477332463097
-0.0024498284784178334
-9.201540295681609e-05
-0.012043655399210238
0.011375567605244752
0.001183838025852033
0.009638809087580837
-0.009131122547197456
0.004349255885223284
0.002059157776027474
-0.0027368753254788884
-0.009919276953752743
-0.0034065235133639233
-0.006549407625055139
-0.0021291445897890495
-0.006608980862711722
0.0010464648352199906
0.0053251040004451515
-0.009809171291456413
-0.011443865662586483
-0.004419349188414923
-0.0019329465992356939
-0.0014266820918119186
-0.003008490389134216
0.002109695130865555
-0.004932413488051472
-0.006149572091579917
0.00212419732838474
0.0030082382338995585
-0.0009296229312790593
0.0014492312344365629
0.00525958364672247
0.0048819283229714575
0.0019801524470802264
0.005737193428645218
0.006083353820871433
0.0055111919132898495
0.00037393189354387293
0.007688595105695276
0.01208032255580934
-0.0008002093954169151
-0.006318447563793695
-0.004081089810531679
-0.0016010907719737964
-0.0051222979339056035
0.006870339509394547
0.00754676083958805
8.500687844830237e-05
-0.0006759628881273773
0.0020999423354615197
-0.005521587039077287
-0.0037203814219647345
-0.0019406878178752874
-0.0012375109882324547
-0.0011894710522857785
5.0648307753809206e-05
0.0009775959713063252
-0.0014812504641062139
-0.0055342084052215825
0.002104308544194063
0.0006086968151237306
-0.0002538217503498022
0.000577778601832381
0.0021353090747879655
0.0027425192716628854
-0.0005334345298797939
0.0040896857823631925
0.004227561150505644
0.003659480346509202
-0.0001506213932073291
0.005359322824034625
0.007172958226694524
0.0010807944591116302
-0.0020051858238638873
-0.0023487578937145064
-0.0013881179626305635
-0.0036124824619431914
0.0034564235890153145
0.005560233017161424
-0.0013793506574105122
0.000169327917725366
-0.00027974039662764517
5.962785983976125e-05
-0.0035464625789223244
0.003184009171516536
-0.0032582615656060066
-0.00019042935702503374
-0.0037212419472137026
0.0021560762117307465
-0.008283883416408771
0.005412868039053565
0.0005801185079304427
-2.7812297447617068e-05
0.008804480631854378
-0.004439485044865464
-0.0033327500243890947
-0.00022788358500325874
0.0034770449581759733
-0.00556628878278154
-0.005705910353634735
-0.003781466216552504
0.0020096883579448816
0.001545964488638987
-0.0007168974596313369
-0.002480761712796863
-0.002419213852950347
-0.0028157698049390283
-0.0011006428118347045
0.003261513445307845
0.0003797751672860593
-0.0022420050426623555
0.0012781907489623414
-0.0032434153476563307
0.0024869157801937943
-0.001632221956783866
-0.006527547258662874
-0.0029685627513359367
-1.6077968875592815e-05
-0.0021319405438621148
-0.005615058587418545
-0.004072666328414583
-0.0027391531276894105
0.0032203018812986687
0.0003728279303479556
0.001000005739498435
0.004423774238165423
0.0013094954093076777
0.0013478797834700711
-0.0024251309855123204
0.006506783378696272
0.0028908326283049444
-0.0012388464370814273
-0.0017266195793312225
0.001656360610029287
-0.0011966727841770607
-0.0015387452658968597
-0.0051024770614009965
-0.0005880415898612439
-0.0016325595780681357
0.0017445389426341818
0.0030628004145198304
0.00485781623404862
-0.0028655740666818424
0.004267124747783332
-0.0016861011992833775
-0.0008086511555063878
0.005357840123893749
0.013875135210792809
-0.00010851378340838597
0.0029754180451160594
0.008192447555653407
0.003669080575796633
-0.008775602442561281
0.0026329202293445273
-0.001445868203541355
-0.0019071199530705512
-0.005051559405580544
-0.00029062978003001317
-0.00032788322103119124
-0.014648932340123712
-0.003006645156929175
-0.008179846910813885
0.0009470332459523514
-0.006885763828510101
0.003821900000280684
-0.0022800715672577597
0.00022944168558563865
-0.00904572599906683
0.009424549479969683
0.010377588419071096
0.002411849511012913
-0.0034310038362476165
-0.0017144529004639822
-0.007950808100192998
-0.0007573019839391307
-0.006546623681867803
0.003152548562504217
-0.009191456406367243
0.021828976364496575
0.01020721961313187
0.0018973845127662836
-0.002654450932404412
-0.01118047456143208
0.001829071940219269
-0.00024700597907579083
0.0035809084804062333
0.02043632598151643
0.005889611598723352
-0.0029493348680639042
-0.006790229417951075
-0.001075069824519725
-0.015269649077564331
-0.02723455960308234
0.009224532092901184
-0.009878084726744184
-0.0018591700209643766
-0.009855769002453683
-0.005145508835104151
-0.019331697329840213
-0.033010252947174426
-0.003909581856781847
0.025075173451398324
-0.012538293608405339
0.0027038589891928795
0.012571051839223808
-0.0182221177368991
-0.02432528771203785
-0.005652559280578847
-0.0032732025753631263
0.0015739073974646574
-0.0035434487465797987
-0.0014848702910580118
-0.001184597115094108
0.000654058455913303
0.0003719691572776146
0.0008738563209979961
0.0024133983937147285
-0.001121827501485636
-0.0011743628910973656
-0.0008469309862486706
0.0001373201585464443
0.00013655787052953394
-0.0008630444615086415
0.001133515459716315
0.002843047161596321
0.0002655407646082551
0.002937338543576941
0.0010478112204247536
0.0029172764007639
0.001895413477645498
0.003142425253311142
0.004660448721096602
-0.002300875941392989
-0.00028655644144986254
0.003960335999667323
-0.0010897072870852502
-0.002233921545027064
0.0009586857302030845
0.003754586218861817
-0.0014275277646762928
0.0018877499846595008
0.0040976445816906055
-0.006112543156143331
-0.007333878262564228
-0.0036642117956707074
-0.00045356551506937963
-5.002032051286185e-05
-0.0017147668707420125
0.002858520317223135
-0.0024553390077236828
-0.004489715825255978
0.0012703250306793177
0.0023188558609766948
-0.0028802820086881995
0.0013694836378064883
0.004701617767231187
0.005084703929109082
0.0005247554666069313
0.003728368662096286
0.0039032956274586334
0.003327008458119437
-9.662333769288547e-05
0.004743861627841537
0.010187007936291577
-0.0002437140309293537
-0.004905216230651948
-0.001733111002379192
-0.0002322522542899053
-0.0027450532222562628
0.003993301186186499
0.0053791438954647495
-0.00010198207793613866
0.0010290110528460167
-0.008096726095286432
0.015247735675295257
0.027208397844687243
0.009785066569926238
0.013701596353324788
0.007480095527737065
0.004912548036673472
-0.011729656761047107
0.006521471857462293
0.014348570917821393
-0.0026826916589026096
-0.01286911945473945
0.01541251146815844
-0.002426677679784489
-0.01671502630437963
-0.0013090647357477435
-0.009988177892183156
-0.021790187088624794
-0.01938820964908934
-0.010083202252421165
0.0014265826931249036
-0.00304768037989017
-0.025210901812792036
-0.005715095352070678
-0.002005530606455942
0.015915014488275963
-0.002159715717972083
0.008400455133555109
-0.01933266539234238
-0.020226687816879012
-0.0019607630478302818
0.004899672396339871
-0.002911584722102762
0.0005338274945604241
0.004082989392368959
0.0013363506730733631
0.0003330136522084758
-0.0014232134764006986
0.003012119073174783
-0.006327260403309638
-0.002119177744277791
0.003492532834477251
0.001471561005742329
-0.005729703548641268
0.018788202790040846
-0.004067769754917223
-0.004647200116115658
-0.009126100742307358
-0.0005402799554115216
-0.004571741224250625
-0.0024505556931180244
-0.008342029288805368
-0.0010502198857614323
-0.006479197754326553
-0.016870092036619853
-0.0035345244875941567
0.00636961595426464
-0.009547141877937537
-0.0023644533353379548
0.00460676798454823
-0.005489069663912371
-0.0016742335494811511
0.0024670319966128046
-0.001125309368700038
-0.022051068525078096
0.02119013115432116
0.025034492696920933
0.008650898411731873
0.010854762513726381
0.0154376217391675
0.013200860934035932
0.009521164033224536
0.021143711792603246
0.007994961150034539
-0.0056275907266196065
-0.00594046691109454
0.001945684107986749
-0.007094483866499195
-0.001233426964884156
-0.02291099534664999
-0.013720467467308489
-0.006316808175092128
-0.01589144755367046
-0.007739944203305937
-0.0010847790071514326
-0.02520423446634123
-0.03087117719906562
0.0031458463046085275
0.022517803340257995
-0.0013537026790621206
0.0016762745190360329
0.002650062020707141
-0.018299079487559593
-0.017673522125062437
-0.003859534160595284
0.007902989674585376
-0.0015281410103284165
0.00868966071549694
-0.0013061094788545172
-0.005248789922416307
-0.004055025203979717
-0.0025951961285196955
-0.008638041946371458
-0.007886362043085609
-0.005019164873093275
0.01018228453970534
0.0017534453976210704
-0.005326961052800208
-0.0019817453544747616
-0.003892409455005629
-0.003528205139061753
-0.0010805179151856682
0.0076045321478424854
-0.0042185357732449046
-0.000827402521810766
-0.010018857178325092
0.00884408749497609
-0.00824723295534813
-0.01950023573509602
-0.007934221518479155
0.0026500583423462337
-0.017235428098690136
-0.0020268206779840044
0.004674441507553504
0.002564525323353247
-0.013624305664994464
0.004407386705548437
-0.0034058437469979812
0.0008386356360750803
-0.004934368157177628
-0.006614059461239866
-0.0029747134013798373
-0.003658191909670808
0.0009279414042345855
-0.001279458160682518
-0.0008130346879484003
0.0006200851916823873
-0.0018104445518890117
0.001089847938554416
-0.0017846465303137124
0.00043518053667766055
-0.0010435564194407573
0.002883104329386617
0.0024383850044070138
0.0001154424907312559
0.0028678144884971904
0.0024786371401676896
0.0012344802909814503
-0.0010304745107590533
0.005735559112065973
0.0033113677404432535
-0.0037812885839752742
-0.00200243121563554
-0.003536233178878419
-0.002943579957660241
-0.0029296932273744584
0.0006018277821352809
0.0018036230524444733
-0.0009431985198282031
9.627248377415149e-05
-0.00481757638146527
-0.0009497350141832431
0.005581233523488167
0.004352403151192774
0.0007730808590479052
-0.0027413434792105925
0.004514585472282042
0.0015212121574179201
0.000295034972323122
-0.0012343052943525467
0.0032154230805052112
-0.004608307576243724
0.01910898252531373
-0.0021281887572890275
-0.0012143514619823278
-0.0049555359933283515
-0.0018756235965992239
-0.004073067062460669
0.0019836220071454175
-0.004784632500564838
-0.001133523322485149
0.001651710175091622
-0.0027955782795654627
-0.0021420749808540125
0.0031182599849368933
-0.00356289510760564
-0.0014811089971993952
-0.0008102439009969544
-0.0016313535982843764
0.0006072369402499055
-0.0018526801755150226
-0.0005416241289689093
0.002827047235618594
-0.004676137950029276
-0.006400843277466699
-0.0026591514972438787
-0.0005324806948337027
-0.00012485429667519475
-0.0012456668450466562
0.0034442215531365963
-0.0018833149630809833
-0.003792237547298793
0.001108452753818382
0.0025260604221761583
-0.0026696143287751805
0.0013916515064949452
0.004707886764373902
0.003996908226950498
0.0011221007207003332
0.0034838962981283217
0.003964168141846543
0.0030234140729154
-0.0001892788304513419
0.0035736130715448306
0.009012436204280267
-2.0805512816867792e-05
-0.0036489323119652407
-0.0014039329774732294
0.0006613428959407831
-0.0022467041087813537
0.0037802815987334364
0.0043801629343248535
0.00037099020331607526
0.0003846658203416382
-0.004106962029560392
0.009818819856093668
-0.0026753874352939953
0.0008214352851670252
-0.0004584939084974492
-0.0002427195432262374
0.004961616383831376
0.010498035769352187
0.0036298104295922383
0.0007466214173408966
0.000157644652431683
0.002737040963395775
-0.012635990676505589
0.0011750660407334728
0.00731778864786235
-0.010116333744814398
4.363239149200855e-05
-0.001822357505494456
0.003277477828343358
-0.003378877795135336
-0.0033007958460593762
-0.005939203887306639
-0.0015825402365410267
0.005865611772946718
0.014804544539636562
-0.00640408429656829
0.004794583439992802
0.00838805376478466
-0.010434209329958845
-0.001088780184014216
-0.0024418438085120607
-0.004078407013842756
0.003174416372141458
-0.004784521484319086
-0.005339447198332198
-0.0032211398224678603
5.2192925950756416e-05
0.0002636307702614162
-0.000708566440576703
0.002768018326070727
-0.0014678072783856782
-0.00404227319949307
0.0007655395687141263
0.002024897817261069
-0.0019408223314482359
0.0016824651271011536
0.0036487203605665578
0.0042242932638969135
0.0003716709957739167
0.003766646567081229
0.0033932766906741387
0.0037903596020061486
-0.00017693914825093947
0.004000906215244258
0.008068906474948116
0.00024947379744703224
-0.003457408575140811
-0.0013595755420921806
-0.0002574863660330521
-0.0028114026014514604
0.0031038533926678294
0.004828512122820119
-0.000826003261894364
0.0008142531353888715
